digraph Tree {
node [shape=box] ;
0 [label="X[10] <= 0.785\ngini = 0.653\nsamples = 81\nvalue = [37, 53, 34]"] ;
1 [label="X[11] <= 1.975\ngini = 0.157\nsamples = 21\nvalue = [0, 3, 32]"] ;
0 -> 1 [labeldistance=2.5, labelangle=45, headlabel="True"] ;
2 [label="gini = 0.0\nsamples = 19\nvalue = [0, 0, 32]"] ;
1 -> 2 ;
3 [label="gini = 0.0\nsamples = 2\nvalue = [0, 3, 0]"] ;
1 -> 3 ;
4 [label="X[12] <= 755.0\ngini = 0.511\nsamples = 60\nvalue = [37, 50, 2]"] ;
0 -> 4 [labeldistance=2.5, labelangle=-45, headlabel="False"] ;
5 [label="X[11] <= 2.145\ngini = 0.08\nsamples = 32\nvalue = [0, 46, 2]"] ;
4 -> 5 ;
6 [label="X[7] <= 0.525\ngini = 0.5\nsamples = 4\nvalue = [0, 2, 2]"] ;
5 -> 6 ;
7 [label="gini = 0.0\nsamples = 2\nvalue = [0, 0, 2]"] ;
6 -> 7 ;
8 [label="gini = 0.0\nsamples = 2\nvalue = [0, 2, 0]"] ;
6 -> 8 ;
9 [label="gini = 0.0\nsamples = 28\nvalue = [0, 44, 0]"] ;
5 -> 9 ;
10 [label="X[4] <= 133.5\ngini = 0.176\nsamples = 28\nvalue = [37, 4, 0]"] ;
4 -> 10 ;
11 [label="X[9] <= 3.425\ngini = 0.051\nsamples = 26\nvalue = [37, 1, 0]"] ;
10 -> 11 ;
12 [label="gini = 0.0\nsamples = 1\nvalue = [0, 1, 0]"] ;
11 -> 12 ;
13 [label="gini = 0.0\nsamples = 25\nvalue = [37, 0, 0]"] ;
11 -> 13 ;
14 [label="gini = 0.0\nsamples = 2\nvalue = [0, 3, 0]"] ;
10 -> 14 ;
}